svm_type nu_svc
kernel_type linear
nr_class 2
total_sv 46
rho 0.530926
label 1 -1
nr_sv 21 25
SV
0.001666606105859983 38:1 53:13 69:1 116:1 152:1 188:1 199:1 221:1 249:1 285:1 301:1 384:1 399:37 421:1 432:2 444:1 446:3 478:1 489:2 535:1 594:10 610:1 622:1 677:1 683:1 705:1 753:1 764:1 807:1 820:1 836:3 863:3 895:1 896:1 943:1 949:1 976:1 1015:1 1021:1 1048:1 1054:1 1063:1 1070:1 1094:1 1133:1 1139:3 1169:2 1178:1 1196:1 1303:2 1350:1 1359:1 1421:1 1439:1 1466:1 1470:1 1544:2 1584:2 1613:2 1629:1 1683:1 1703:1 1742:1 1767:3 1820:1 1832:1 1833:1 1839:1 1840:1 1841:3 1861:1 1901:1 1925:1 1936:1 1954:2 1974:1 2056:1 2109:1 2136:1 2180:2 2209:1 2222:1 2249:1 2266:1 2317:1 2349:1 2354:1 2374:2 2380:14 2395:1 2414:1 2439:1 2468:1 2499:1 2501:1 2524:1 2578:1 2609:4 2630:1 2641:1 2704:1 2774:1 2807:1 2812:2 2840:1 2880:1 2974:2 
0.01919383019701661 139:1 141:1 151:3 263:4 267:1 421:1 478:3 644:1 802:1 823:1 984:1 986:1 1137:1 1322:1 1377:3 1380:1 1437:1 1449:1 1470:3 1472:1 1568:1 1790:4 1889:1 2726:1 2840:1 
0.01500400764549028 105:2 155:2 301:1 622:1 710:3 774:1 823:1 1191:3 1359:5 1377:3 1733:3 1909:1 2088:1 2451:1 2578:1 2768:1 
0.008800222275574681 229:1 306:2 549:1 816:4 1286:7 1321:8 1377:2 1691:4 1733:6 1948:7 2490:1 2654:1 2727:1 2914:4 
0.006241273655013035 106:3 127:1 360:5 421:1 470:1 478:3 540:1 661:7 823:1 1063:1 1106:1 1321:1 1359:1 1377:3 1439:1 1653:1 1748:1 2000:1 2016:2 2448:1 2459:1 2494:1 2864:1 2927:1 2930:4 2974:1 
0.02403169278209531 51:1 116:2 399:1 591:6 647:1 699:2 1123:2 1142:1 1359:1 1377:3 1733:2 1831:1 1909:2 2290:1 2299:1 2329:1 2929:1 2945:1 
0.003101800729484615 478:1 823:10 860:1 861:1 869:1 1359:1 1377:6 1594:19 2717:2 2875:1 2903:1 2924:1 
0.02403169278209531 301:1 623:1 774:3 1264:1 1359:1 1377:3 1733:3 1856:3 1963:1 2120:1 2438:1 
0.007806401419204836 51:1 55:1 73:2 710:4 807:1 892:4 1377:2 1733:2 1898:1 1902:1 2222:2 2681:1 2682:2 
0.003946655248757289 87:1 88:1 93:3 203:1 249:1 285:4 375:1 381:3 400:1 432:1 444:2 478:1 495:1 497:1 508:1 559:2 584:1 653:1 683:1 688:4 713:1 718:1 734:1 749:1 830:1 875:1 885:2 944:1 952:1 960:3 967:3 1015:1 1019:1 1053:1 1054:2 1069:1 1088:1 1092:1 1096:1 1097:1 1101:2 1113:1 1185:1 1198:1 1271:2 1325:1 1334:2 1359:2 1380:1 1412:4 1417:2 1439:1 1519:1 1582:1 1598:1 1615:1 1653:1 1733:3 1752:1 1777:1 1799:1 1909:1 1913:1 2015:2 2025:1 2071:1 2074:2 2085:1 2114:1 2150:1 2160:1 2187:1 2191:1 2194:2 2209:1 2239:1 2389:1 2412:2 2458:1 2501:2 2512:1 2536:1 2578:2 2627:1 2641:1 2649:2 2707:1 2729:1 2739:1 2754:1 2762:1 2818:2 2838:1 2845:2 2862:1 2913:1 2917:1 2922:1 2945:1 2959:2 2961:1 2982:2 
0.004796630908949012 37:4 88:1 112:1 116:2 127:3 182:1 184:1 195:1 220:1 282:1 287:1 301:2 311:1 316:1 381:1 414:3 421:1 471:1 622:1 646:2 663:1 685:1 688:3 734:1 764:1 774:2 853:2 980:2 1009:2 1036:2 1131:1 1232:1 1240:1 1270:1 1321:1 1334:2 1362:1 1380:1 1383:1 1427:1 1439:2 1466:1 1469:2 1572:1 1870:1 1879:1 1955:1 1998:2 2156:1 2261:2 2308:1 2355:6 2375:4 2405:1 2438:5 2456:1 2516:1 2622:1 2682:3 2720:1 2754:1 2920:1 2967:2 
0.01669429364117096 51:1 141:1 764:1 823:1 1001:1 1359:1 1377:3 1417:3 1435:1 1548:6 1591:1 1733:1 1898:4 1909:1 2310:1 2912:1 2927:1 
0.02403169278209531 182:1 287:1 661:3 688:3 1045:1 1166:2 1321:1 1435:1 1439:1 1704:1 1813:3 1909:1 1954:1 2021:1 2094:1 2819:1 2982:1 
0.009920893739292716 10:1 88:1 123:1 127:2 154:1 174:1 301:4 375:7 399:1 444:1 463:1 478:1 515:1 594:1 659:1 710:2 774:2 775:1 795:3 807:1 851:1 909:1 915:1 927:2 940:1 949:1 955:1 976:1 980:1 1069:1 1115:1 1162:1 1270:1 1277:1 1321:3 1375:1 1449:1 1634:1 1823:1 1840:3 1888:1 1925:3 1958:1 2209:2 2231:2 2241:1 2427:1 2448:1 2462:1 2481:1 2505:1 2514:1 2596:2 2641:1 2802:1 2811:1 2840:1 2849:2 2880:3 
0.007235551557151355 116:2 118:1 127:2 129:1 154:1 174:1 186:1 193:3 194:1 248:1 249:2 287:1 369:1 375:1 381:2 396:1 402:1 417:1 422:1 444:1 448:1 535:2 589:1 611:1 622:1 636:1 646:1 659:1 687:2 689:1 710:4 753:1 754:1 764:1 795:1 801:1 820:1 832:1 852:1 876:1 915:1 944:1 951:2 964:1 1072:1 1218:3 1239:1 1326:1 1334:2 1380:1 1412:1 1421:3 1564:1 1571:1 1575:1 1578:2 1596:1 1609:1 1611:5 1643:1 1731:1 1733:2 1777:1 1782:1 1929:1 1959:1 1963:1 1966:1 2032:1 2065:1 2074:1 2162:1 2198:1 2231:1 2261:1 2349:1 2411:1 2501:2 2512:1 2539:2 2578:1 2641:1 2704:1 2861:1 2930:1 2965:1 2982:1 2996:1 
0.01804689094263821 37:1 267:1 285:1 301:2 375:2 381:2 393:1 594:1 623:1 774:2 832:1 853:2 882:1 926:1 952:1 960:1 984:3 1015:6 1270:2 1334:1 1359:2 1380:1 1401:1 1520:1 1575:1 1729:1 1839:1 1932:1 2048:1 2227:1 2578:1 2631:2 2682:3 2704:1 2724:1 
0.02403169278209531 51:1 594:2 960:3 1354:1 1359:1 1377:5 1572:2 1846:1 2230:1 2682:3 
0.01688680684274473 51:1 141:3 206:3 278:1 414:1 415:1 573:1 810:1 823:1 1359:1 1377:3 1694:1 1790:1 2206:1 2261:3 2395:1 2641:2 2642:1 2912:3 2940:1 2982:2 
0.01542252025106737 51:1 116:1 203:1 450:1 709:1 729:1 906:1 1359:1 1377:8 1739:1 2115:3 2301:3 2311:1 2333:1 2375:1 2394:1 2438:3 2567:1 2682:1 
0.01345746431525146 37:1 51:1 87:3 527:2 659:1 734:1 735:1 774:2 823:3 1090:1 1129:1 1352:1 1359:1 1377:3 1439:2 1470:1 1685:1 1687:1 1733:3 2310:3 2395:3 2425:3 2554:3 2682:1 
0.02403169278209531 51:1 710:3 823:1 1377:2 1427:3 1740:1 1742:1 
-0.007295798407639838 267:4 653:1 979:4 1377:2 2245:1 2352:1 2355:1 2494:1 2575:1 2745:1 
-0.01214223546169823 393:1 524:2 536:1 559:2 688:1 876:1 1310:1 1404:1 1427:1 1566:1 1630:1 1925:1 2001:1 2231:1 2309:1 2394:1 2438:1 2490:1 2494:1 2562:3 2632:1 2802:1 2832:1 2883:2 2979:1 
-0.02403169278209531 27:2 51:1 193:2 269:1 341:1 623:1 817:1 830:1 1082:1 1359:1 1377:6 1575:1 1816:2 1929:1 1999:1 2326:1 2357:1 2556:1 2766:3 
-0.005665495847338333 141:1 193:3 199:3 282:1 300:1 478:1 531:4 823:1 1344:10 1359:1 1377:3 1733:1 1963:1 2176:1 2997:1 
-0.006373457571161555 51:1 96:1 108:1 245:4 343:2 594:1 823:2 1055:1 1193:1 1251:4 1359:1 1377:3 1682:1 1733:2 1744:1 1909:1 2118:1 2408:1 2429:1 2442:1 2454:1 2477:5 2818:5 2883:1 2974:1 
-0.009093057234133462 141:1 594:2 631:3 823:2 854:1 963:1 1082:1 1223:5 1321:1 1359:1 1377:3 1660:1 1733:3 2294:6 2598:1 2641:1 2912:1 
-0.0007336137670438273 5:3 9:1 57:2 88:1 93:1 116:4 127:7 154:6 194:1 199:2 248:4 249:1 261:1 267:1 381:1 417:1 421:1 535:3 639:10 646:1 683:1 687:8 688:1 703:1 786:2 792:1 869:1 905:1 927:4 1042:1 1068:1 1069:1 1142:1 1156:1 1185:1 1271:1 1277:1 1421:1 1435:1 1466:2 1488:1 1528:1 1537:1 1554:1 1556:1 1572:1 1626:1 1733:5 1841:1 1871:1 2012:1 2040:1 2061:1 2065:3 2074:1 2120:1 2145:1 2231:1 2352:1 2355:1 2395:2 2411:2 2438:1 2494:1 2512:4 2516:1 2543:1 2577:2 2608:1 2774:1 2808:1 2833:1 2861:1 2880:1 2883:1 2922:1 2924:1 2939:1 2995:1 
-0.0003963162376013098 13:7 70:1 116:2 122:2 127:1 151:1 195:1 248:1 287:1 430:1 432:1 447:1 478:1 524:1 535:1 594:1 623:3 625:1 708:2 774:5 807:2 836:1 892:1 915:1 1075:1 1129:1 1164:1 1169:1 1229:13 1321:1 1334:4 1362:5 1381:1 1425:1 1568:1 1646:1 1657:1 1707:1 1733:3 1793:2 1834:3 1837:1 1839:2 1843:1 1858:4 1895:2 1910:4 1913:2 1925:4 2004:1 2021:1 2074:2 2088:1 2122:14 2203:9 2209:2 2218:2 2222:2 2233:1 2278:4 2355:1 2487:2 2560:13 2578:2 2603:6 2637:1 2641:4 2792:1 2812:3 2930:2 2989:1 2995:2 
-0.02403169278209531 35:1 219:1 308:3 478:1 535:1 594:1 687:1 705:1 1359:1 1377:3 1440:1 1563:1 1733:3 1925:1 1967:1 
-0.01323285963072942 9:1 51:1 116:5 323:1 696:1 823:3 940:1 955:1 1185:1 1270:5 1359:1 1377:3 1819:5 1898:1 1909:1 2000:1 2179:1 2961:1 2976:2 
-0.01591003949229447 45:1 51:1 116:1 478:1 484:3 504:1 688:1 816:2 823:4 930:3 1359:1 1377:3 1427:1 1470:1 1585:3 1740:1 1909:1 1954:3 1957:2 1974:3 2467:1 2494:1 2578:1 2724:1 2745:1 
-0.009508614060852143 51:1 141:1 146:1 525:1 589:1 646:1 1239:4 1359:1 1377:3 1693:2 1733:5 1997:4 2012:1 2201:2 2494:3 2524:1 2883:1 2912:1 2927:1 2991:1 
-0.01134286760250582 21:1 36:2 127:1 233:1 249:1 290:2 301:2 334:1 421:1 535:1 594:1 610:1 653:1 688:1 708:2 764:1 774:4 868:2 915:1 1135:2 1156:1 1299:1 1304:1 1388:1 1449:1 1556:1 1584:1 1624:1 1676:1 1733:1 1815:1 1875:1 1969:1 2201:1 2209:1 2210:1 2231:1 2302:1 2355:1 2556:1 2704:1 2812:2 
-0.02281237872996104 121:4 171:3 1321:3 1377:2 1540:2 1733:2 2438:3 2494:1 
-0.02403169278209531 51:1 399:2 651:1 754:1 774:1 823:1 1333:1 1359:1 1377:3 1392:3 1733:3 1809:3 2136:1 2266:1 2757:1 
-0.01387064427102561 116:1 478:1 594:2 823:3 871:1 1021:2 1359:1 1377:3 1782:3 1909:8 2001:1 2176:1 2494:1 2578:2 2662:1 
-0.01156217775787742 84:2 220:1 301:7 358:1 381:1 444:1 449:4 581:1 625:2 711:1 731:1 778:1 830:1 1084:1 1220:1 1377:2 1667:2 1841:1 2021:4 2074:3 2162:1 2314:1 2355:1 2375:1 2522:1 2861:2 
-0.002124835362275131 51:1 56:1 116:1 126:2 203:1 220:1 246:1 267:3 282:4 301:1 304:1 309:1 434:4 456:3 525:1 564:1 575:1 594:2 606:1 626:1 688:2 755:1 774:3 830:1 853:1 865:1 926:1 927:4 984:1 1016:1 1063:2 1090:1 1099:1 1131:1 1135:1 1270:1 1289:1 1334:1 1359:3 1371:1 1381:1 1383:1 1435:3 1469:1 1506:1 1520:1 1710:1 1733:4 1754:2 1777:1 1837:1 1843:1 1925:1 2109:1 2120:1 2154:1 2173:1 2178:1 2192:1 2355:3 2467:1 2490:1 2512:2 2622:1 2662:1 2670:1 2702:1 2812:1 2839:1 2945:1 2972:1 
-0.01447481286170916 141:1 267:4 375:4 984:5 1377:2 2027:1 2375:3 2912:2 
-0.02403169278209531 375:1 424:1 594:1 661:1 688:1 886:1 980:1 984:2 1000:2 1015:1 1575:2 1813:1 2854:1 
-0.003964793130508282 116:1 174:1 193:1 267:1 369:1 399:1 421:1 422:1 430:1 438:1 463:1 478:1 485:1 486:1 487:1 515:1 594:3 612:1 646:2 659:1 754:1 774:6 798:1 807:3 869:2 911:1 927:1 952:1 1042:1 1226:1 1262:1 1299:1 1321:1 1362:1 1417:3 1439:1 1454:3 1470:1 1556:1 1558:1 1713:1 1733:1 1852:1 1870:1 1877:1 1925:2 1936:1 1937:1 2036:3 2113:1 2120:1 2124:1 2156:2 2210:1 2218:1 2233:1 2273:1 2282:1 2305:7 2358:1 2405:1 2438:1 2499:4 2501:2 2524:1 2662:2 2775:3 2802:1 2808:2 2812:1 2818:2 2822:2 2967:1 
-0.00401882339091855 87:4 149:2 177:1 267:2 287:1 301:1 462:1 464:1 478:2 580:1 594:1 688:3 774:2 807:1 830:2 842:1 853:1 930:1 980:3 984:2 1105:1 1218:1 1270:1 1292:1 1321:1 1334:1 1354:1 1380:1 1415:2 1435:2 1731:1 1782:1 1858:1 1871:6 1875:1 1925:1 2030:1 2074:1 2302:1 2355:1 2432:1 2670:1 2695:1 2704:1 2721:1 
-0.002494231042209093 51:1 430:1 535:1 649:1 688:1 906:1 1012:1 1150:1 1356:1 1359:1 1377:3 1733:10 1989:1 2501:16 2833:1 2854:1 2867:1 2973:1 
-0.007494507306322194 35:4 267:4 984:4 1377:2 1733:4 2122:4 2682:4 
-0.01774198309095758 14:1 37:1 116:1 127:2 174:1 207:1 220:1 287:1 301:1 334:1 399:1 594:1 774:1 960:2 1052:1 1063:2 1101:4 1270:1 1334:1 1359:1 1449:1 1506:1 1584:1 1879:1 1905:1 1925:1 2169:2 2230:1 2302:1 2486:1 2504:1 2569:1 2695:1 
