svm_type nu_svc
kernel_type linear
nr_class 2
total_sv 36
rho 0.584723
label 1 -1
nr_sv 18 18
SV
0.001120480151443722 38:1 53:13 69:1 116:1 152:1 188:1 199:1 221:1 249:1 285:1 301:1 384:1 399:37 421:1 432:2 444:1 446:3 478:1 489:2 535:1 594:10 610:1 622:1 677:1 683:1 705:1 753:1 764:1 807:1 820:1 836:3 863:3 895:1 896:1 943:1 949:1 976:1 1015:1 1021:1 1048:1 1054:1 1063:1 1070:1 1094:1 1133:1 1139:3 1169:2 1178:1 1196:1 1303:2 1350:1 1359:1 1421:1 1439:1 1466:1 1470:1 1544:2 1584:2 1613:2 1629:1 1683:1 1703:1 1742:1 1767:3 1820:1 1832:1 1833:1 1839:1 1840:1 1841:3 1861:1 1901:1 1925:1 1936:1 1954:2 1974:1 2056:1 2109:1 2136:1 2180:2 2209:1 2222:1 2249:1 2266:1 2317:1 2349:1 2354:1 2374:2 2380:14 2395:1 2414:1 2439:1 2468:1 2499:1 2501:1 2524:1 2578:1 2609:4 2630:1 2641:1 2704:1 2774:1 2807:1 2812:2 2840:1 2880:1 2974:2 
0.01270941672067232 139:1 141:1 151:3 263:4 267:1 421:1 478:3 644:1 802:1 823:1 984:1 986:1 1137:1 1322:1 1377:3 1380:1 1437:1 1449:1 1470:3 1472:1 1568:1 1790:4 1889:1 2726:1 2840:1 
0.02428053647860191 105:2 155:2 301:1 622:1 710:3 774:1 823:1 1191:3 1359:5 1377:3 1733:3 1909:1 2088:1 2451:1 2578:1 2768:1 
0.006591211759094874 229:1 306:2 549:1 816:4 1286:7 1321:8 1377:2 1691:4 1733:6 1948:7 2490:1 2654:1 2727:1 2914:4 
0.006063172408808062 106:3 127:1 360:5 421:1 470:1 478:3 540:1 661:7 823:1 1063:1 1106:1 1321:1 1359:1 1377:3 1439:1 1653:1 1748:1 2000:1 2016:2 2448:1 2459:1 2494:1 2864:1 2927:1 2930:4 2974:1 
0.0276482157367092 27:2 51:1 193:2 269:1 341:1 623:1 817:1 830:1 1082:1 1359:1 1377:6 1575:1 1816:2 1929:1 1999:1 2326:1 2357:1 2556:1 2766:3 
0.01556108229421994 51:1 127:2 141:2 147:2 221:6 646:1 700:2 774:1 952:1 1359:1 1377:3 1878:1 2261:1 2578:1 2912:2 
0.02444760100211077 141:1 271:1 421:1 472:1 823:3 1028:1 1142:1 1164:1 1359:1 1377:3 1556:1 1958:1 1967:1 2327:1 2864:1 2912:1 2935:4 
0.002295146228404198 51:1 109:1 433:1 823:4 861:2 1359:1 1377:3 1594:15 1749:2 2875:7 
0.01582645960616428 51:1 508:1 512:1 611:1 823:1 931:1 1075:1 1136:1 1215:1 1270:1 1359:1 1377:4 1412:3 1520:1 1954:1 1963:1 2003:1 2071:3 2105:1 2356:1 2421:1 2478:1 2611:1 2732:1 2889:2 2918:1 2973:2 
0.002361081305422976 13:1 113:1 116:2 127:8 174:1 193:5 282:1 285:2 297:3 311:1 334:1 336:6 374:4 531:1 535:1 594:4 611:1 632:1 646:1 647:1 653:1 710:1 711:1 726:4 729:1 774:4 787:1 807:1 826:4 863:1 892:2 909:1 1053:1 1069:2 1142:1 1296:2 1334:1 1381:6 1417:2 1483:6 1494:2 1548:2 1558:1 1584:3 1733:15 1805:3 1831:1 1845:1 1886:5 1895:2 1925:2 1982:2 1986:2 2074:3 2088:1 2210:3 2222:2 2226:2 2382:2 2395:1 2543:11 2560:7 2641:7 2649:1 2691:1 2802:2 2811:11 2961:1 2995:1 
0.005126957411789519 141:1 301:2 474:1 478:2 823:1 906:1 1021:2 1073:1 1156:3 1270:1 1377:2 1625:1 2021:2 2079:12 2494:1 2694:1 2912:2 2952:1 
0.02078176935957867 51:1 141:1 491:6 688:1 823:1 980:1 1142:1 1359:1 1377:3 1427:1 1478:1 1682:1 1733:1 1886:1 2657:1 2912:1 2961:2 
0.006932178940184858 38:1 98:1 127:5 133:1 190:3 199:1 267:1 282:1 421:2 430:1 434:1 444:1 450:2 565:1 650:2 683:1 688:1 774:1 788:1 801:1 830:3 863:1 903:1 915:1 927:1 1063:4 1115:1 1129:1 1226:2 1227:2 1299:1 1359:2 1372:2 1383:1 1409:1 1417:1 1505:5 1556:1 1572:1 1707:2 1710:1 1746:1 1793:1 1910:2 1922:1 1954:3 2209:2 2308:2 2522:1 2578:1 2596:1 2649:1 2651:1 2761:1 2811:1 2812:3 2957:1 
0.007130484880010616 38:1 51:1 401:7 527:3 545:7 1077:1 1082:1 1124:1 1359:1 1377:5 1502:1 1869:1 2142:1 2174:1 2618:1 2799:1 2836:1 
0.0276482157367092 51:1 478:3 589:1 729:1 1042:1 1150:1 1275:1 1359:1 1377:4 1435:1 1733:1 1811:1 1944:1 2021:2 2540:2 2618:1 2623:1 2945:1 2955:1 
0.01466171587374851 156:1 299:1 416:1 470:2 537:1 636:1 762:1 823:3 863:1 891:1 1072:2 1081:1 1085:1 1146:2 1359:1 1377:3 1512:1 1568:1 1571:1 1615:1 1617:1 1957:5 2108:1 2371:1 2409:1 2494:2 2677:2 
0.0276482157367092 92:2 141:2 911:1 1377:2 1396:2 1412:2 2623:1 2912:2 
-0.01156837165065041 267:4 653:1 979:4 1377:2 2245:1 2352:1 2355:1 2494:1 2575:1 2745:1 
-0.005101037753390695 6:1 8:1 9:1 98:2 112:2 116:1 123:1 127:2 220:2 233:2 240:1 249:1 287:1 346:2 417:1 421:1 507:3 551:1 585:1 592:1 594:4 651:3 672:1 734:1 980:1 1036:1 1142:1 1300:3 1334:1 1359:1 1374:1 1427:1 1563:1 1587:2 1653:1 1707:1 1775:2 1816:5 1845:1 1921:1 1938:1 1982:1 2009:2 2074:1 2088:1 2137:1 2208:1 2218:2 2340:2 2355:1 2438:1 2532:1 2560:3 2607:1 2662:1 2773:1 
-0.007747215725811702 393:1 524:2 536:1 559:2 688:1 876:1 1310:1 1404:1 1427:1 1566:1 1630:1 1925:1 2001:1 2231:1 2309:1 2394:1 2438:1 2490:1 2494:1 2562:3 2632:1 2802:1 2832:1 2883:2 2979:1 
-0.00958719306179877 141:1 193:3 199:3 282:1 300:1 478:1 531:4 823:1 1344:10 1359:1 1377:3 1733:1 1963:1 2176:1 2997:1 
-0.01436809683525308 51:1 116:2 399:1 591:6 647:1 699:2 1123:2 1142:1 1359:1 1377:3 1733:2 1831:1 1909:2 2290:1 2299:1 2329:1 2929:1 2945:1 
-0.009622937248928024 51:1 96:1 108:1 245:4 343:2 594:1 823:2 1055:1 1193:1 1251:4 1359:1 1377:3 1682:1 1733:2 1744:1 1909:1 2118:1 2408:1 2429:1 2442:1 2454:1 2477:5 2818:5 2883:1 2974:1 
-0.0276482157367092 51:1 184:1 249:1 369:2 612:1 696:1 734:1 1334:1 1359:1 1377:4 1421:1 1427:1 1506:1 2419:1 2494:2 2637:1 2991:1 
-0.01556606294812013 51:1 122:1 705:1 853:1 895:1 1282:1 1326:3 1359:1 1377:3 1380:4 1540:1 1564:1 1721:3 1925:1 2661:3 2770:1 2991:1 
-0.01747562580682559 51:1 79:1 174:2 373:1 402:2 478:1 519:1 768:1 961:1 1245:1 1359:1 1377:3 1417:1 1435:1 1449:1 1582:3 1605:2 1802:1 2078:3 2094:2 2202:1 2439:2 2494:1 2519:1 2759:1 2969:1 
-0.007710789127578357 27:7 51:1 108:1 343:3 594:1 670:1 967:7 1321:1 1359:1 1377:3 1427:1 1625:1 2079:1 2442:1 2494:1 2785:6 
-0.0276482157367092 594:1 640:2 661:1 823:1 1359:1 1377:3 2000:1 2088:1 2649:2 
-0.00353252721584368 141:2 228:7 393:1 421:2 548:1 704:9 1006:2 1136:2 1220:1 1278:1 1377:2 1401:1 1589:1 2156:1 2499:1 2530:8 2651:1 2909:7 2912:2 
-0.01549801124985949 51:1 141:1 764:1 823:1 1001:1 1359:1 1377:3 1417:3 1435:1 1548:6 1591:1 1733:1 1898:4 1909:1 2310:1 2912:1 2927:1 
-0.02026187208968828 154:1 193:1 203:1 267:2 309:1 390:1 580:1 1202:1 1359:1 1377:4 1461:1 1646:1 1733:3 1871:1 1903:1 1949:1 2021:1 2216:5 2218:1 2267:1 2327:1 2402:1 2645:1 
-0.01499004590647374 203:1 267:1 470:1 708:1 832:1 984:2 993:6 1045:1 1359:1 1377:3 1729:1 1733:5 1925:1 2315:1 2541:1 
-0.0276482157367092 141:3 676:1 1264:3 1377:2 2912:3 
-0.005110973663890215 116:1 133:1 134:1 147:1 174:1 190:5 285:1 309:1 381:1 422:1 535:1 594:1 646:1 688:1 853:2 863:1 965:1 1005:1 1016:1 1269:8 1292:1 1304:1 1354:1 1359:4 1370:2 1372:1 1505:4 1636:1 1641:1 1690:1 1742:3 1843:1 1922:1 1942:2 1946:5 1993:1 2009:1 2048:1 2157:1 2165:1 2197:1 2308:1 2354:2 2392:1 2395:1 2428:1 2578:1 2591:1 2600:1 2743:1 2796:1 2861:1 2866:1 2875:1 2896:1 2989:2 
-0.007748534136143066 51:1 114:1 594:1 647:6 653:1 710:4 729:2 823:1 927:1 1359:1 1377:3 1380:1 1616:9 1701:1 1909:1 1940:1 2031:1 2724:1 2825:1 
