svm_type nu_svc
kernel_type linear
nr_class 2
total_sv 23
rho 0.670912
label 1 -1
nr_sv 12 11
SV
0.001006547684775757 38:1 53:13 69:1 116:1 152:1 188:1 199:1 221:1 249:1 285:1 301:1 384:1 399:37 421:1 432:2 444:1 446:3 478:1 489:2 535:1 594:10 610:1 622:1 677:1 683:1 705:1 753:1 764:1 807:1 820:1 836:3 863:3 895:1 896:1 943:1 949:1 976:1 1015:1 1021:1 1048:1 1054:1 1063:1 1070:1 1094:1 1133:1 1139:3 1169:2 1178:1 1196:1 1303:2 1350:1 1359:1 1421:1 1439:1 1466:1 1470:1 1544:2 1584:2 1613:2 1629:1 1683:1 1703:1 1742:1 1767:3 1820:1 1832:1 1833:1 1839:1 1840:1 1841:3 1861:1 1901:1 1925:1 1936:1 1954:2 1974:1 2056:1 2109:1 2136:1 2180:2 2209:1 2222:1 2249:1 2266:1 2317:1 2349:1 2354:1 2374:2 2380:14 2395:1 2414:1 2439:1 2468:1 2499:1 2501:1 2524:1 2578:1 2609:4 2630:1 2641:1 2704:1 2774:1 2807:1 2812:2 2840:1 2880:1 2974:2 
0.01203413397922198 139:1 141:1 151:3 263:4 267:1 421:1 478:3 644:1 802:1 823:1 984:1 986:1 1137:1 1322:1 1377:3 1380:1 1437:1 1449:1 1470:3 1472:1 1568:1 1790:4 1889:1 2726:1 2840:1 
0.01909870737884049 172:1 177:1 301:1 478:4 773:1 823:3 927:1 1270:1 1359:1 1377:3 1470:5 1733:4 1740:2 2275:1 2512:1 2808:1 2999:1 
0.0001871331697713993 9:1 14:9 17:1 30:1 35:4 37:3 45:1 58:1 79:3 88:1 112:1 113:1 116:22 122:1 127:3 131:1 139:2 174:2 179:1 193:2 195:3 199:4 203:4 221:1 226:1 246:1 269:1 272:1 278:1 282:1 285:5 311:1 316:1 334:1 381:2 393:2 399:55 420:1 421:3 423:1 430:1 432:3 438:4 441:1 444:2 445:1 446:1 447:1 470:3 488:2 495:1 524:2 531:2 535:1 559:1 589:1 594:14 596:1 611:3 614:1 620:1 623:1 646:2 659:1 683:1 687:1 688:2 689:1 714:1 734:4 753:1 754:2 764:3 774:17 775:1 792:1 795:1 806:1 807:1 830:3 852:1 856:1 863:1 895:1 915:1 921:2 924:2 927:3 930:2 934:2 946:3 949:5 955:1 957:1 958:1 963:2 967:1 974:2 980:2 1013:104 1016:2 1021:5 1042:1 1046:1 1047:1 1053:1 1063:1 1069:1 1101:2 1115:1 1121:1 1130:1 1133:1 1137:2 1138:1 1142:4 1148:2 1169:2 1173:1 1174:4 1198:1 1207:1 1218:3 1227:1 1245:1 1260:1 1275:1 1304:1 1308:2 1321:6 1334:8 1351:1 1362:1 1375:1 1380:3 1383:9 1388:1 1392:1 1420:1 1427:12 1435:21 1452:1 1466:4 1478:2 1483:1 1503:1 1518:1 1520:1 1528:1 1533:7 1539:1 1558:1 1563:3 1571:2 1574:2 1580:1 1582:2 1596:1 1609:1 1646:3 1668:1 1718:2 1733:44 1742:3 1782:6 1793:1 1831:1 1839:1 1841:1 1846:1 1877:1 1879:6 1898:1 1904:1 1909:4 1913:1 1923:1 1925:13 1954:1 1957:1 1973:1 1984:2 1991:1 1998:2 2004:1 2008:9 2012:1 2018:4 2021:1 2041:1 2048:7 2079:2 2094:2 2109:2 2113:1 2120:2 2124:1 2155:2 2156:3 2162:1 2167:3 2173:1 2201:44 2203:1 2210:1 2222:1 2227:3 2231:1 2233:7 2245:1 2261:4 2262:1 2290:1 2314:2 2317:3 2326:1 2327:1 2330:3 2345:1 2355:7 2377:2 2382:1 2392:1 2394:1 2395:1 2404:1 2405:1 2409:1 2423:2 2438:1 2486:1 2488:1 2490:1 2499:2 2501:1 2504:1 2516:1 2524:2 2536:1 2541:1 2543:5 2556:4 2578:5 2586:1 2607:1 2608:4 2631:1 2634:1 2637:1 2638:1 2641:2 2649:1 2650:1 2662:2 2668:2 2670:1 2682:1 2699:1 2704:2 2715:1 2724:2 2730:1 2765:1 2768:1 2790:1 2807:1 2808:2 2812:1 2819:4 2833:1 2840:2 2845:1 2848:1 2851:1 2861:1 2863:1 2864:1 2874:1 2880:1 2883:4 2891:3 2922:1 2925:4 2930:1 2945:3 2961:2 2969:3 2989:1 2992:1 2994:1 
0.01614921234258033 116:1 478:3 661:1 700:1 823:6 1069:1 1359:1 1377:3 1385:1 1580:1 1742:1 2459:1 
0.01095698235563018 22:2 116:1 141:4 151:1 478:1 823:4 1359:1 1377:3 1435:1 1437:1 1470:1 1526:1 1694:3 1733:1 1871:1 1925:1 2000:1 2035:1 2153:1 2167:1 2302:1 2494:1 2572:1 2631:2 2642:1 2754:1 2912:2 
0.03245357337375896 51:1 85:1 199:1 478:4 540:1 1053:1 1240:1 1377:2 1816:1 2000:1 2641:1 
0.0124790675214099 47:1 51:1 52:1 116:1 334:1 586:1 594:1 781:1 823:2 838:1 844:1 1183:1 1359:1 1377:3 1418:1 1427:1 1522:1 1529:2 1582:6 1719:1 1742:1 1816:1 1831:2 2000:2 2260:3 2650:1 2779:1 2991:2 2993:1 
0.03245357337375896 51:1 1106:1 1377:7 1564:1 1662:1 2518:3 2691:3 
0.02099358317149327 51:1 95:1 116:1 287:1 444:3 562:1 823:2 1359:1 1365:1 1377:3 1412:1 1733:1 1891:4 2261:1 2332:3 2499:1 2606:1 2952:1 
0.01626940134961683 51:1 112:1 141:1 199:1 448:1 478:1 529:1 568:1 792:1 823:3 871:4 1270:2 1287:1 1359:1 1372:1 1377:3 1733:4 1909:1 1912:1 2250:3 2578:4 2699:1 2912:1 2993:1 
0.02063952454169571 51:1 249:1 444:4 491:1 611:1 816:1 876:2 1106:5 1377:2 1611:1 1646:1 1909:1 2302:1 2317:1 2494:2 2505:1 2698:1 
-0.01195614027532076 105:2 155:2 301:1 622:1 710:3 774:1 823:1 1191:3 1359:5 1377:3 1733:3 1909:1 2088:1 2451:1 2578:1 2768:1 
-0.01310224110015083 267:4 653:1 979:4 1377:2 2245:1 2352:1 2355:1 2494:1 2575:1 2745:1 
-0.005337670714355939 37:2 113:1 116:1 193:1 287:1 332:1 421:2 478:7 570:9 671:1 734:1 762:1 774:1 792:2 824:1 1143:1 1240:1 1503:1 1580:1 1586:1 1682:1 1733:1 1879:1 1909:2 1920:1 1957:2 1973:2 2048:1 2302:2 2405:1 2516:1 2524:2 2806:4 2840:2 2982:1 
-0.006997982334066359 57:1 92:2 127:1 194:1 261:1 287:1 381:1 389:1 554:2 573:2 673:3 683:1 915:2 927:7 964:1 1043:1 1143:1 1270:1 1285:1 1334:2 1412:1 1421:3 1470:4 1733:1 1831:2 1858:1 1925:1 2040:1 2120:2 2238:1 2308:1 2448:1 2551:1 2704:1 2880:1 2952:1 
-0.004306912541250005 51:1 141:10 302:1 307:1 332:1 516:1 535:1 594:2 823:2 906:1 984:1 1359:1 1377:3 1450:1 1488:1 1611:9 1729:1 1733:11 1826:9 1875:1 2142:1 2150:1 2238:1 2476:1 2623:1 2682:1 2745:1 2760:1 2912:10 2961:1 
-0.03245357337375896 434:3 478:4 1377:2 1714:2 2172:1 
-0.009073346609208634 372:1 449:2 478:4 696:1 1080:1 1377:2 1383:1 1925:2 2005:1 2066:1 2503:2 2534:1 2917:1 2948:8 
-0.03245357337375896 51:1 116:1 174:1 377:1 478:2 823:1 949:1 1021:1 1300:2 1359:1 1377:4 1733:3 1909:1 2009:2 2032:1 2261:2 2438:1 2602:2 2623:1 2642:2 2812:1 
-0.02689580903290167 51:1 199:1 273:1 278:1 285:1 442:4 716:2 823:2 837:1 1130:1 1377:2 1733:1 1831:1 2314:3 2590:1 
-0.03245357337375896 267:1 823:1 825:1 915:1 1118:1 1251:1 1321:1 1359:1 1377:4 1421:1 1646:3 1675:1 1926:1 2307:1 2388:1 2822:1 2940:2 
-0.01969061751402268 1:1 51:1 221:1 320:1 444:1 535:1 594:5 688:1 774:2 819:1 883:1 1359:2 1377:4 1937:1 2061:1 2069:1 2282:1 2342:1 2353:1 2520:1 
